encog,BasicNetwork,java,3.4.0,1,63679703154596
[BASIC]
[BASIC:PARAMS]
[BASIC:NETWORK]
beginTraining=0
connectionLimit=0
contextTargetOffset=0,0,0
contextTargetSize=0,0,0
endTraining=2
hasContext=f
inputCount=4
layerCounts=2,7,5
layerFeedCounts=2,6,4
layerContextCount=0,0,0
layerIndex=0,2,9
output=0,0,0,0,0,0,0,0,1,0,0,0,0,1
outputCount=2
weightIndex=0,14,44
weights=-0.273391308736626,-0.177409152078875,1.23863242671477,0.86339003479281,1.01776793763657,-0.728066113682442,0.0871567994207106,-0.552678703973832,0.893481514404376,-0.400055455855564,-1.35359207496513,-0.821032619123894,0.50719778082851,-0.447229679286339,-0.729269780883981,-0.0137116166055511,-0.319098231239386,-0.719492649001215,-1.61593816317695,-0.205789781489122,-0.34932946246965,0.290551523861277,0.158618574739444,0.0498622256719574,-2.60696990801278,-1.21147895524216,1.36872708662688,4.5990999379856,0.945168702446042,1.66852357377427,0.919669596651787,-3.99346362796889,-4.77899521755786,3.05040659861927,-0.384072658989638,0.187169253133853,-0.0841889890820174,0.74674972949126,-0.882125159026474,-0.681659380143,0.413512709022893,0.320310899057205,0.0730112146332313,0.421396734064831
biasActivation=0,1,1
[BASIC:ACTIVATION]
"ActivationTANH"
"ActivationTANH"
"ActivationLinear"
