encog,BasicNetwork,java,3.4.0,1,63679707560700
[BASIC]
[BASIC:PARAMS]
[BASIC:NETWORK]
beginTraining=0
connectionLimit=0
contextTargetOffset=0,0,0
contextTargetSize=0,0,0
endTraining=2
hasContext=f
inputCount=22
layerCounts=1,7,23
layerFeedCounts=1,6,22
layerContextCount=0,0,0
layerIndex=0,1,8
output=0,0,0,0,0,0,0,1,0,0,0,0,0,0,0,0,0,0,0,0,0,0,0,0,0,0,0,0,0,0,1
outputCount=1
weightIndex=0,7,145
weights=0.616786533315778,0.82264936496773,0.193465561267609,0.928207641854771,-0.21617635103416,0.481374471776277,-0.814838427999469,0.214927759794955,0.297292570607149,0.258064533232188,-0.664315136169018,0.0655335990980051,-0.491119925314817,-0.784962334568796,0.13775219891799,-0.0980893753491749,0.717000612366544,-0.396130941039899,-0.141978010378332,-0.61217606960494,0.357332609704693,0.561446729708026,0.387485121662391,0.255936026411559,0.700371532929746,-0.134363384310485,0.093794657530448,-1.06938811610455,-0.89882844919492,-0.700567657761913,-0.679321996362703,-0.928097370331445,-0.293027209160452,-0.848552764292296,-0.78905260201605,-0.0856432084810226,-0.546731317481427,-0.574783708019043,-0.154132689161045,0.845254538517576,-0.539861843816322,-0.0245938343469104,-0.114689378896376,0.811366395247975,-0.0481583056562872,-0.457706371685624,-0.0236817741510049,0.359757430734148,-0.0365736392166465,-0.369278460331645,0.780878367709102,0.382930325238196,-0.167369032993715,2.41349855210791,-0.579565373228175,-0.847535663176131,-0.0999319453138642,0.264766957633975,2.2177668852807,0.512881554974173,1.93726510924501,0.00311486291528656,-0.336335286981037,1.49805213895197,2.24042552639715,2.37499526443496,0.159859057286155,-5.22606917767555,-0.284930511118594,2.23028206752334,0.854009611241513,2.45935710147347,-0.0777252971360916,1.16560470944947,1.43006223751604,-0.047348620079632,-0.254943406438263,0.200105447744295,0.366162599104476,0.890629467517213,-0.0998710623188998,-0.761398885816125,-0.03020167680952,-0.329844463437814,-0.505347628324883,-0.945164217826203,0.602581767538348,-0.347442189300573,-0.0896318025414793,-0.342613307605611,0.186917949432417,0.734852171288269,-0.0174800943153615,-0.395075812038219,-0.124140587121784,0.0961463733494188,0.448522409820992,0.554703360820142,1.0324785028459,-0.820669698286924,-0.257994170534124,-0.974895224592306,1.33685362335992,-0.194117467803577,0.139209354093661,-1.65819054192249,3.56583380201511,-3.14666586205568,1.98618532264515,0.244099042631102,1.46512600709452,1.17416473742245,1.296438306465,1.53290396168772,2.02892225329928,0.474228274390657,-1.92198287999429,-8.81276550520883,-1.70025129572485,1.28173404323662,0.424554235497849,0.718495825366698,0.446262526046365,0.894662574332753,-0.456236277099163,1.20514234907616,0.739003802262907,0.173788719105546,-0.69768533556439,1.1235568488564,0.446447385593093,0.448569682947212,-0.710423546643043,0.651057637074343,0.772418876407384,-0.201437913489976,0.283963679543501,0.306277556994534,0.122100240540672,-0.081031688844411,-0.543300337876031,0.593940750223816,-0.61053807203346,-0.432126249419468,-0.102675296330783
biasActivation=0,1,1
[BASIC:ACTIVATION]
"ActivationTANH"
"ActivationTANH"
"ActivationLinear"
