encog,BasicNetwork,java,3.4.0,1,63679796748588
[BASIC]
[BASIC:PARAMS]
[BASIC:NETWORK]
beginTraining=0
connectionLimit=0
contextTargetOffset=0,0,0
contextTargetSize=0,0,0
endTraining=2
hasContext=f
inputCount=11
layerCounts=5,16,12
layerFeedCounts=5,15,11
layerContextCount=0,0,0
layerIndex=0,5,21
output=0,0,0,0,0,0,0,0,0,0,0,0,0,0,0,0,0,0,0,0,1,0,0,0,0,0,0,0,0,0,0,0,1
outputCount=5
weightIndex=0,80,260
weights=-0.0123416316508204,0.115573745263011,-0.0653313870597362,-0.0377524120112976,-0.602488400772852,0.0148549065281341,-0.0351771982832865,-0.0232719279515227,0.0208556026284688,0.0875074277685603,-0.000858821624325193,-0.055649217958117,0.0842653887353678,-0.176193274804619,0.00123923430118119,-0.566846122976707,-0.353504276018882,-0.248209891329854,-0.671922577907445,0.202944371866295,-0.436079111783948,1.04250474268199,0.11152905599741,0.492905689423907,-0.278479343405774,0.300185923529982,-0.216720116707397,-1.37652663446214,1.74411562292203,0.992045440813026,-0.650673679994298,-0.140237907227566,0.26734923845556,-0.766227153987062,1.08442406524846,-0.5201483364267,-0.455535007495985,-0.423553922968416,0.867693481408633,-0.874817867257645,0.406535718133812,-1.88159795672998,0.297591302411716,1.9532256260971,-2.59012668988054,0.0640161888913566,0.877506379901954,0.48370273650896,0.381006712446258,1.6580555868595,0.00695547774614776,0.340248634488457,0.0316905906539191,-1.41595369510014,-1.23141593128948,-0.011729970604733,-0.0401191892862845,1.49105806226273,0.012146635654801,0.114738076928378,-0.160024885907975,-2.42200886147417,0.0391373533102186,-0.690061004363105,0.0622436167485811,-0.0393896390210882,-0.00748095740511551,0.0382588759981327,-0.00637359055635871,-0.094615327582621,-0.0558065905430094,0.0765468432633234,0.0112092304132787,-0.0129592109586131,0.00103416571135642,-0.0193916766901616,0.0023393024069467,0.198777038460202,-0.00725834993791644,-0.0519321787446639,-7.84936178955353,16.2209456262832,7.49530997947625,3.60701263466788,-1.94260113420792,3.02434941478339,-6.61265996000526,-9.39430741554449,-4.82632869027606,15.5616574089144,-14.0030508569085,18.7522019501484,8.26302049944552,-9.22676679213638,18.0167744723383,-1.03023524601112,8.81318112951656,9.57671904792129,-12.4649358165592,-2.17126298594641,23.6595701385107,4.72431443615696,12.3151023312567,-3.97745747060344,0.401316134685214,-1.59278518004322,0.0706316072854716,-0.428335832915674,0.625634968099674,1.19631853407916,-1.1680785800621,0.0166419268158723,-0.303098199995366,1.72039500300945,1.61853028744207,1.41558762898103,-10.6065188351958,8.46010118640547,1.68429969507649,-30.28880281659,6.54856122188122,-11.0893249431215,-10.2700198439782,15.4464797424487,-39.6579711020341,-7.03237013410795,-5.93009109480171,-0.223532713822207,-23.1870764316921,20.7522124614276,-13.1307339930499,6.29644850498974,24.7498611996306,-1.75326917389063,-10.2120319118945,21.1464674281013,-11.7820040996404,-13.0272767252408,0.508695149417232,-27.4039832380615,-0.99559187219174,1.11029674503798,-0.0127378134922733,-0.383531060108874,0.196403368253279,-0.843202209172451,1.28071190703203,0.433840090291293,-0.211451291456454,-0.316321558853998,-1.57958546990707,0.966082491764268,-7.05807598141002,2.95811317107845,1.81324533407506,-0.825726150549794,7.02784643608837,4.62839647600925,-5.64528594580354,6.2099704509304,-3.76785220169679,-0.601471918002764,-0.219441823333862,7.1298393307635,7.79576992712861,-19.7527253533341,-34.4402779375505,-4.99642203487247,29.8151678275655,12.1304166866511,-33.1185307201159,18.3973020466822,27.6766532721655,-41.014054992608,-18.0089538420834,-1.95649485766622,-10.3561002919586,1.09891236310059,0.150870283525789,-6.41470390119372,14.3667126561498,-2.38367679385076,-8.37860815869865,21.3850497679302,3.7635213222057,-27.4056663804424,13.3935038912095,-25.1725166558204,-2.03807460923475,0.981550927057295,0.197995692271399,0.924493927078029,-0.169920003640218,-0.673756197274818,-0.284208626375212,1.07446477512083,-1.02379334891094,0.783221006409589,-1.52874165065055,1.55839897110353,-29.9889933736138,10.8203988737782,-9.91290462434815,-15.3527810108083,10.0784865626818,26.4092904598491,-31.6194623513763,-1.96550927913553,-39.3832001143053,10.8185792010212,-19.9455791785895,-21.3436600634252,-0.360648292673173,-0.150568352934996,0.0779003227578091,0.0341282500825413,-0.07013064562081,-0.883232899738599,-0.405298514890876,0.831866674667106,0.784706554551764,-2.41277987935491,0.282836146338742,-1.74762558816126,0.331244585374581,-0.926992001868321,0.0124988609690795,0.132598686313342,-0.530357792619907,0.295727236455108,-1.52555667901283,0.158428976256606,0.324585399976243,-1.92816067955398,1.2927899583689,-2.22152400618556,2.21807175472424,-0.991300579322818,5.1215054845209,2.27443902420015,0.91358216944885,2.75092413613344,-5.75777479617405,-1.67281256972809,6.8367867162231,1.37938022315129,2.71290298830866,-1.72472360291996,3.28001009221111,-2.07977688652444,-0.569139818493963,2.07084939821267,-5.77860966662924,1.31639704005024,-3.77348545634725,-1.89954810418294,0.885600514377914,-2.43100756719422,3.0553624832926,-4.68189377566815
biasActivation=0,1,1
[BASIC:ACTIVATION]
"ActivationTANH"
"ActivationTANH"
"ActivationLinear"
